const int WEIGHTS_SIZE = 6727;
const double WEIGHTS[WEIGHTS_SIZE] = {-0.17998,2.3776,4.7822,-2.0792,-2.9171,5.6161,0.36206,-3.3821,0.016475,1.1275,-2.3341,-9.1053,0.53691,-0.73904,0.99031,1.9996,1.5002,-1.2975,5.9194,-5.7569,-0.66192,-0.24288,6.5515,-5.3902,15.797,-13.398,0.1979,6.1973,-2.2582,-9.1731,0,2.3776,3.1685,0.80885,3.6117,1.6407,4.9497,2.1987,1.0238,1.409,2.1015,-1.9572,-8.8938,-6.2582,-4.2448,-0.93729,-0.61579,-1.1182,-1.7286,4.1909,-5.4161,1.1016,2.7783,7.2978,2.8437,-8.4103,-11.37,1.3899,5.8758,2.287,-7.2714,-1.1404,4.7822,0.80885,6.7611,-1.2582,-4.7146,4.6686,-3.6914,-2.9941,-5.1184,-3.822,-2.9135,2.3952,-0.036586,4.7285,-3.7512,-1.9829,-1.1078,0.092462,0.65613,2.5865,-0.090476,5.1563,-0.8442,0.083293,1.366,1.0569,-1.347,5.8661,-10.719,-2.9907,-2.2881,-2.0792,3.6117,-1.2582,-4.0907,-1.7052,3.0751,-2.977,3.0288,-0.80064,-0.95685,-0.77158,-1.0448,3.0729,-0.46837,2.5349,11.954,3.9658,-2.2549,-5.2384,-3.3291,8.9668,4.3968,0.8443,-1.3589,-1.0903,-0.11534,9.5774,12.7,-9.1593,-14.503,-8.8907,-2.9171,1.6407,-4.7146,-1.7052,2.508,-7.491,-3.1068,2.4316,3.3497,-0.25951,3.8676,8.4312,1.9121,1.8016,-0.36516,-0.87804,-0.019178,2.3648,-6.2902,7.0035,-0.3496,-1.6899,-15.367,-0.56161,3.9465,24.884,0.49556,-7.4014,-5.6281,-2.8832,8.9749,5.6161,4.9497,4.6686,3.0751,-7.491,13.961,-2.2004,-11.062,-6.1559,-8.2379,-0.59687,2.1323,-6.4599,-6.816,-2.1479,-0.95688,-0.44529,-0.72168,-1.4463,2.999,9.6296,12.499,1.3635,0,0,0,5.9996,-43.442,0,0,0,0.36206,2.1987,-3.6914,-2.977,-3.1068,-2.2004,17.345,0.7588,-1.7604,-8.6209,-0.56733,-4.3698,-0.71094,-2.1483,2.2211,1.9382,2.2859,-1.2713,-1.4045,0.64503,3.1473,-0.84323,-15.125,0,0,0,8.0449,0.95782,0,0,0,-3.3821,1.0238,-2.9941,3.0288,2.4316,-11.062,0.7588,16.491,2.5258,2.175,-0.063453,-5.3991,3.0774,0.7463,0.6017,0.73166,-1.7661,0.3628,0.097016,-0.7248,-0.44504,-5.6177,2.5234,0,0,0,0.29626,8.752,0,0,0,0.016475,1.409,-5.1184,-0.80064,3.3497,-6.1559,-1.7604,2.5258,10.841,3.9138,0.067559,-0.9636,0.53359,3.2603,-1.9561,-1.4509,-1.2674,1.8869,0.49984,0.36152,0.31375,-0.83308,-1.9038,-1.1035,0,0.26129,1.9776,5.171,0,0,0,1.1275,2.1015,-3.822,-0.95685,-0.25951,-8.2379,-8.6209,2.175,3.9138,8.8209,0.93385,4.5777,-3.1331,-1.3519,1.2756,-0.93308,-0.47257,-0.064385,-1.8345,1.2047,5.0587,4.2058,5.5372,8.4099,-25.499,-42.219,4.9449,15.782,-0.24733,4.6496,15.984,-2.3341,-1.9572,-2.9135,-0.77158,3.8676,-0.59687,-0.56733,-0.063453,0.067559,0.93385,4.5883,2.4191,0.71145,0.9242,0.3244,0.36982,0.89479,0.89692,-1.7913,-0.13579,-1.7714,-1.3468,0.69273,8.2934,-44.746,65.785,-2.332,5.6578,-12.698,-8.2343,-4.7208,-9.1053,-8.8938,2.3952,-1.0448,8.4312,2.1323,-4.3698,-5.3991,-0.9636,4.5777,2.4191,7.6394,7.9303,2.4585,3.0672,1.4061,1.8594,1.1831,-1.0666,0.067331,-16.192,-14.91,-7.6113,-16.245,72.825,0,-17.089,-6.1462,18.036,3.6922,0,0.53691,-6.2582,-0.036586,3.0729,1.9121,-6.4599,-0.71094,3.0774,0.53359,-3.1331,0.71145,7.9303,-0.3131,5.1056,0.81471,-3.2841,-2.136,-0.073748,-8.4121,4.5998,-0.0085739,3.5554,-3.4573,0.6981,-5.7966,-4.8854,-4.9623,-6.3907,15.212,8.101,-0.46686,-0.73904,-4.2448,4.7285,-0.46837,1.8016,-6.816,-2.1483,0.7463,3.2603,-1.3519,0.9242,2.4585,5.1056,-14.366,16.623,-0.82129,-3.1686,2.5594,1.0025,3.7453,-3.0357,-0.37214,22.281,0,0,0,-3.5243,-8.4412,0,0,0,0.99031,-0.93729,-3.7512,2.5349,-0.36516,-2.1479,2.2211,0.6017,-1.9561,1.2756,0.3244,3.0672,0.81471,16.623,-12.968,-11.64,0.83095,0.40805,2.7517,2.2745,-0.012581,1.8402,4.1042,0,0,0,-1.7613,-3.7211,0,0,0,1.9996,-0.61579,-1.9829,11.954,-0.87804,-0.95688,1.9382,0.73166,-1.4509,-0.93308,0.36982,1.4061,-3.2841,-0.82129,-11.64,-5.9018,-3.4447,0.70643,2.2491,3.6147,-0.10314,4.7835,5.5745,0,0,0,-1.2467,-13.17,0,0,0,1.5002,-1.1182,-1.1078,3.9658,-0.019178,-0.44529,2.2859,-1.7661,-1.2674,-0.47257,0.89479,1.8594,-2.136,-3.1686,0.83095,-3.4447,-6.5319,-1.5998,4.7852,3.027,-1.616,-0.42066,-2.0542,7.5582,0.51857,0,-4.2079,-1.9332,0,0,0,-1.2975,-1.7286,0.092462,-2.2549,2.3648,-0.72168,-1.2713,0.3628,1.8869,-0.064385,0.89692,1.1831,-0.073748,2.5594,0.40805,0.70643,-1.5998,-4.5255,0.25248,4.3801,-4.3133,-4.0104,-8.2145,25.042,6.9009,-2.0145,-3.9044,-2.1132,-11.742,7.7201,-1.0592,5.9194,4.1909,0.65613,-5.2384,-6.2902,-1.4463,-1.4045,0.097016,0.49984,-1.8345,-1.7913,-1.0666,-8.4121,1.0025,2.7517,2.2491,4.7852,0.25248,-8.0736,-6.1411,12.066,11.159,0.13438,-30.88,5.8424,0,11.743,15.498,24.99,-74.738,9.483,-5.7569,-5.4161,2.5865,-3.3291,7.0035,2.999,0.64503,-0.7248,0.36152,1.2047,-0.13579,0.067331,4.5998,3.7453,2.2745,3.6147,3.027,4.3801,-6.1411,-2.9716,-11.961,-13.82,-26.127,0.3373,-17.968,-2.7555,-11.638,-5.2099,11.124,89.622,0,-0.66192,1.1016,-0.090476,8.9668,-0.3496,9.6296,3.1473,-0.44504,0.31375,5.0587,-1.7714,-16.192,-0.0085739,-3.0357,-0.012581,-0.10314,-1.616,-4.3133,12.066,-11.961,-8.1059,-7.2046,9.834,0,0,0,-5.4572,-3.3516,3.4344,-13.294,23.787,-0.24288,2.7783,5.1563,4.3968,-1.6899,12.499,-0.84323,-5.6177,-0.83308,4.2058,-1.3468,-14.91,3.5554,-0.37214,1.8402,4.7835,-0.42066,-4.0104,11.159,-13.82,-7.2046,-6.5675,9.7968,5.0882,0,0,-5.6979,-1.5934,-7.7846,15.689,0.13926,6.5515,7.2978,-0.8442,0.8443,-15.367,1.3635,-15.125,2.5234,-1.9038,5.5372,0.69273,-7.6113,-3.4573,22.281,4.1042,5.5745,-2.0542,-8.2145,0.13438,-26.127,9.834,9.7968,29.094,1.6261,-78.927,0,9.7511,0,0,0,0,-5.3902,2.8437,0.083293,-1.3589,-0.56161,0,0,0,-1.1035,8.4099,8.2934,-16.245,0.6981,0,0,0,7.5582,25.042,-30.88,0.3373,0,5.0882,1.6261,2.5687,-9.1465,0,0,0,0,0,0,15.797,-8.4103,1.366,-1.0903,3.9465,0,0,0,0,-25.499,-44.746,72.825,-5.7966,0,0,0,0.51857,6.9009,5.8424,-17.968,0,0,-78.927,-9.1465,32.703,53.521,0,0,0,0,0,-13.398,-11.37,1.0569,-0.11534,24.884,0,0,0,0.26129,-42.219,65.785,0,-4.8854,0,0,0,0,-2.0145,0,-2.7555,0,0,0,0,53.521,-33.522,0,0,0,0,0,0.1979,1.3899,-1.347,9.5774,0.49556,5.9996,8.0449,0.29626,1.9776,4.9449,-2.332,-17.089,-4.9623,-3.5243,-1.7613,-1.2467,-4.2079,-3.9044,11.743,-11.638,-5.4572,-5.6979,9.7511,0,0,0,-2.5466,-0.73289,4.551,-1.0497,-3.2845,6.1973,5.8758,5.8661,12.7,-7.4014,-43.442,0.95782,8.752,5.171,15.782,5.6578,-6.1462,-6.3907,-8.4412,-3.7211,-13.17,-1.9332,-2.1132,15.498,-5.2099,-3.3516,-1.5934,0,0,0,0,-0.73289,0.56932,3.2625,0.91591,-12.862,-2.2582,2.287,-10.719,-9.1593,-5.6281,0,0,0,0,-0.24733,-12.698,18.036,15.212,0,0,0,0,-11.742,24.99,11.124,3.4344,-7.7846,0,0,0,0,4.551,3.2625,12.778,1.6028,-8.2596,-9.1731,-7.2714,-2.9907,-14.503,-2.8832,0,0,0,0,4.6496,-8.2343,3.6922,8.101,0,0,0,0,7.7201,-74.738,89.622,-13.294,15.689,0,0,0,0,-1.0497,0.91591,1.6028,-11.813,13.167,0,-1.1404,-2.2881,-8.8907,8.9749,0,0,0,0,15.984,-4.7208,0,-0.46686,0,0,0,0,-1.0592,9.483,0,23.787,0.13926,0,0,0,0,-3.2845,-12.862,-8.2596,13.167,-4.1786,-0.17571,-5.0668,-2.8982,-12.548,6.5859,-1.8974,16.434,9.6812,-0.99893,5.6409,-9.5735,-9.8026,-1.526,-2.153,-5.7832,5.1914,2.6711,-2.5883,7.1256,6.5588,-1.437,-2.3204,-4.3221,12.849,-19.631,19.175,2.202,-8.0196,-10.325,13.388,3.5013,-5.0668,-5.3469,-3.1219,-9.2513,7.5917,-12.107,11.115,0.52857,-0.22303,12.496,-0.89984,-0.19575,3.7505,1.3453,-1.4377,9.8476,7.0262,-7.3563,3.6375,-0.060839,-7.5318,-12.042,-11.263,4.2214,-6.0736,12.074,-2.0906,-12.937,3.6814,9.4805,33.822,-2.8982,-3.1219,-10.343,1.7385,6.8432,-9.0056,14.022,2.7172,3.8076,4.4952,4.178,-3.0281,0.016664,-19.454,1.711,6.3249,6.6941,2.2956,0.13937,0.56701,-6.4763,-7.3301,-11.272,18.983,-12.904,-22.593,-3.4886,-10.138,0.8647,24.731,36.483,-12.548,-9.2513,1.7385,20.449,14.717,-3.2879,4.4579,-0.27406,6.3351,-1.0474,3.2163,3.5783,9.9832,2.366,-11.916,-11.916,-4.0353,6.0085,3.7883,5.2397,-30.847,-20.469,-13.806,39.68,45.398,-2.3312,-33.87,-44.425,26.87,23.959,34.543,6.5859,7.5917,6.8432,14.717,-7.6943,1.3399,-11.594,-1.8564,1.6834,-10.941,3.2547,3.5765,-3.3396,0.85088,6.3558,-5.6875,-6.0107,3.5522,-10.227,-6.8904,8.88,10.129,10.064,-10.43,15.209,-2.8274,4.9542,22.89,11.425,-34.045,-47.284,-1.8974,-12.107,-9.0056,-3.2879,1.3399,14.25,1.9377,3.8597,-6.4486,-2.3261,1.2228,-2.1505,9.2798,16.355,1.4335,-5.522,-5.2809,5.77,3.7549,-3.9431,-18.827,-15.078,-17.906,-52.403,9.2084,0,-12.501,59.837,57.563,0.72559,0,16.434,11.115,14.022,4.4579,-11.594,1.9377,-13.062,-3.766,0.21709,-6.4534,-5.7031,1.2144,-17.212,9.8379,-0.84368,-9.4021,-10.211,-1.2295,-5.1933,-4.6287,29.255,30.778,33.79,-77.338,3.3158,0,21.975,47.716,-118.66,0.36649,0,9.6812,0.52857,2.7172,-0.27406,-1.8564,3.8597,-3.766,-8.2163,3.3248,-1.3724,-0.35927,1.9558,-5.2027,1.6255,2.1292,-1.5356,1.2386,-2.5625,-6.5066,0.68263,0.30202,2.4129,0.25308,5.802,-29.995,0.044169,-1.3786,-28.196,53.717,-10.02,0,-0.99893,-0.22303,3.8076,6.3351,1.6834,-6.4486,0.21709,3.3248,-0.50892,-2.5819,-0.27356,4.1468,4.8474,-8.9832,6.0034,3.8764,4.9082,-1.0425,-4.9836,-1.2664,-5.0485,-7.0834,-4.597,124.28,-46.213,0.062981,-8.9619,-19.55,-7.0149,-19.319,-0.023349,5.6409,12.496,4.4952,-1.0474,-10.941,-2.3261,-6.4534,-1.3724,-2.5819,-4.0599,1.5925,-0.23532,-7.3592,2.2709,-2.6742,1.7289,-0.3337,-1.6276,-1.6428,-4.0332,22.537,20.936,19.757,-21.925,-100.74,39.583,21.698,7.0928,74.353,-23.498,-78.095,-9.5735,-0.89984,4.178,3.2163,3.2547,1.2228,-5.7031,-0.35927,-0.27356,1.5925,0.58761,2.0097,7.5064,2.5745,-0.089796,-1.0465,-1.5574,0.53595,1.9952,1.8781,-7.8412,-10.116,-7.4802,-41.915,138.71,-26.362,-7.0693,-15.27,-15.29,9.048,-5.6518,-9.8026,-0.19575,-3.0281,3.5783,3.5765,-2.1505,1.2144,1.9558,4.1468,-0.23532,2.0097,-0.33635,4.7841,-3.3765,-1.3137,-0.11139,-1.4688,1.4128,2.2102,3.8533,-5.0205,-4.3893,-2.4813,34.087,53.829,6.4371,-5.3194,-18.601,-34.106,-16.079,0.0035787,-1.526,3.7505,0.016664,9.9832,-3.3396,9.2798,-17.212,-5.2027,4.8474,-7.3592,7.5064,4.7841,-3.0071,1.8801,1.3677,-12.13,-5.4597,5.6573,-5.1284,0.82261,0.17027,8.634,0.54613,-9.0508,16.033,-33.191,-7.9444,-3.6532,4.8323,-0.050699,17.328,-2.153,1.3453,-19.454,2.366,0.85088,16.355,9.8379,1.6255,-8.9832,2.2709,2.5745,-3.3765,1.8801,-11.507,-1.9567,0.86966,7.6448,0.43683,1.8577,2.1685,1.692,1.1289,-12.307,112.83,-20.617,0,-5.0821,14.561,-88.445,-1.028,0,-5.7832,-1.4377,1.711,-11.916,6.3558,1.4335,-0.84368,2.1292,6.0034,-2.6742,-0.089796,-1.3137,1.3677,-1.9567,2.3503,4.3153,8.238,0.41287,0.53286,-0.60861,-4.9177,-5.8041,-17.194,45.642,-2.9138,0.0056348,-3.2402,-3.7576,-0.20968,0.11255,0,5.1914,9.8476,6.3249,-11.916,-5.6875,-5.522,-9.4021,-1.5356,3.8764,1.7289,-1.0465,-0.11139,-12.13,0.86966,4.3153,-0.79823,-3.4816,-0.22401,-1.6476,0.75313,20.116,18.586,23.532,-163.1,-3.1932,0.013369,20.323,58.719,5.2749,1.9007,0.010363,2.6711,7.0262,6.6941,-4.0353,-6.0107,-5.2809,-10.211,1.2386,4.9082,-0.3337,-1.5574,-1.4688,-5.4597,7.6448,8.238,-3.4816,-3.0854,-1.8057,-5.6062,-3.3282,16.399,14.447,14.795,-81.33,-26.2,-0.0073521,18.222,13.457,28.147,-9.3869,-0.011916,-2.5883,-7.3563,2.2956,6.0085,3.5522,5.77,-1.2295,-2.5625,-1.0425,-1.6276,0.53595,1.4128,5.6573,0.43683,0.41287,-0.22401,-1.8057,2.4535,-2.9301,1.3053,-12.769,-11.141,-9.3766,29.709,86.607,0.0018372,-14.546,-25.74,42.564,-55.278,-20.822,7.1256,3.6375,0.13937,3.7883,-10.227,3.7549,-5.1933,-6.5066,-4.9836,-1.6428,1.9952,2.2102,-5.1284,1.8577,0.53286,-1.6476,-5.6062,-2.9301,1.4807,-2.6041,9.9202,11.053,14.943,17.512,-68.962,0.60247,10.041,-4.461,18.318,-28.044,3.7211,6.5588,-0.060839,0.56701,5.2397,-6.8904,-3.9431,-4.6287,0.68263,-1.2664,-4.0332,1.8781,3.8533,0.82261,2.1685,-0.60861,0.75313,-3.3282,1.3053,-2.6041,-2.1031,0.5777,0.83309,-0.040679,-9.9922,5.9143,-31.476,0.20846,-12.006,-27.687,67.714,-0.11312,-1.437,-7.5318,-6.4763,-30.847,8.88,-18.827,29.255,0.30202,-5.0485,22.537,-7.8412,-5.0205,0.17027,1.692,-4.9177,20.116,16.399,-12.769,9.9202,0.5777,-1.3016,-11.521,-7.1535,19.167,2.4049,-2.475,10.556,-0.24554,-10.011,6.552,3.0774,-2.3204,-12.042,-7.3301,-20.469,10.129,-15.078,30.778,2.4129,-7.0834,20.936,-10.116,-4.3893,8.634,1.1289,-5.8041,18.586,14.447,-11.141,11.053,0.83309,-11.521,-17.729,-16.692,28.609,52.413,32.869,1.1555,-15.324,-6.4911,41.384,-69.91,-4.3221,-11.263,-11.272,-13.806,10.064,-17.906,33.79,0.25308,-4.597,19.757,-7.4802,-2.4813,0.54613,-12.307,-17.194,23.532,14.795,-9.3766,14.943,-0.040679,-7.1535,-16.692,-16.829,21.102,55.158,-25.758,5.2312,-19.525,28.36,-4.6213,-8.6637,12.849,4.2214,18.983,39.68,-10.43,-52.403,-77.338,5.802,124.28,-21.925,-41.915,34.087,-9.0508,112.83,45.642,-163.1,-81.33,29.709,17.512,-9.9922,19.167,28.609,21.102,-49.063,-57.237,-121.28,29.744,12.321,87.113,-9.9676,20.013,-19.631,-6.0736,-12.904,45.398,15.209,9.2084,3.3158,-29.995,-46.213,-100.74,138.71,53.829,16.033,-20.617,-2.9138,-3.1932,-26.2,86.607,-68.962,5.9143,2.4049,52.413,55.158,-57.237,-15.296,38.578,-60.522,27.465,-11.438,-0.053866,-0.22986,19.175,12.074,-22.593,-2.3312,-2.8274,0,0,0.044169,0.062981,39.583,-26.362,6.4371,-33.191,0,0.0056348,0.013369,-0.0073521,0.0018372,0.60247,-31.476,-2.475,32.869,-25.758,-121.28,38.578,45.326,-2.7322,-0.54612,0,0,0,2.202,-2.0906,-3.4886,-33.87,4.9542,-12.501,21.975,-1.3786,-8.9619,21.698,-7.0693,-5.3194,-7.9444,-5.0821,-3.2402,20.323,18.222,-14.546,10.041,0.20846,10.556,1.1555,5.2312,29.744,-60.522,-2.7322,21.117,9.9517,15.16,-31.085,-1.567,-8.0196,-12.937,-10.138,-44.425,22.89,59.837,47.716,-28.196,-19.55,7.0928,-15.27,-18.601,-3.6532,14.561,-3.7576,58.719,13.457,-25.74,-4.461,-12.006,-0.24554,-15.324,-19.525,12.321,27.465,-0.54612,9.9517,25.592,-22.646,2.5772,-0.38283,-10.325,3.6814,0.8647,26.87,11.425,57.563,-118.66,53.717,-7.0149,74.353,-15.29,-34.106,4.8323,-88.445,-0.20968,5.2749,28.147,42.564,18.318,-27.687,-10.011,-6.4911,28.36,87.113,-11.438,0,15.16,-22.646,-10.272,-74.969,21.45,13.388,9.4805,24.731,23.959,-34.045,0.72559,0.36649,-10.02,-19.319,-23.498,9.048,-16.079,-0.050699,-1.028,0.11255,1.9007,-9.3869,-55.278,-28.044,67.714,6.552,41.384,-4.6213,-9.9676,-0.053866,0,-31.085,2.5772,-74.969,23.791,12.298,3.5013,33.822,36.483,34.543,-47.284,0,0,0,-0.023349,-78.095,-5.6518,0.0035787,17.328,0,0,0.010363,-0.011916,-20.822,3.7211,-0.11312,3.0774,-69.91,-8.6637,20.013,-0.22986,0,-1.567,-0.38283,21.45,12.298,-6.0407,-0.17086,1.3463,2.1907,14.566,-15.264,-20.23,-35.895,-57.547,-9.897,17.852,37.84,50.423,13.908,13.444,18.13,7.0563,16.661,-18.143,-12.304,-25.503,-4.1846,-22.437,-12.757,-38.519,51.505,-13.91,-2.7216,-6.0286,21.364,11.995,14.338,4.1067,3.8725,6.9681,-4.5268,-9.2559,14.194,-9.3749,-7.4277,-10.093,-6.101,-1.2521,3.8303,4.9125,-4.2065,1.2784,-5.64,2.4201,3.9957,7.2878,4.3039,7.3728,5.5135,9.834,-0.56377,2.734,1.7178,4.7402,10.839,-19.314,16.016,-43.232,8.9102,6.9681,12.279,1.707,-7.1543,6.0519,-13.338,-0.86366,0.10642,-5.8542,-4.7525,-0.78317,-1.1596,18.442,3.7343,-6.9,-8.5424,-2.4622,-3.9179,-3.2204,12.852,10.752,21.585,-28.315,12.082,-27.876,8.9831,2.3183,-20.813,41.489,-41.37,-16.104,-4.5268,1.707,-19.398,-3.8873,-1.3014,0.54291,1.7309,-3.1802,1.6137,-2.477,-2.5233,-3.251,-6.1611,10.937,11.586,3.6621,-1.7139,-0.78704,-1.3761,3.384,-2.5836,-7.0962,-40.776,18.597,-3.9517,6.6511,15.032,-34.877,60.544,-22.062,-3.5937,-9.2559,-7.1543,-3.8873,27.324,0.018156,21.367,37.686,18.547,-0.74274,-14.32,-28.078,0.41052,-8.2396,-9.5537,-0.12019,-5.9289,11.015,4.2856,12.84,-23.946,-16.132,-34.367,14.682,-5.7766,-9.2283,-26.45,-32.767,19.997,38.901,102.82,32.361,14.194,6.0519,-1.3014,0.018156,-10.319,-0.85284,0.96891,8.228,0.29253,-2.7022,-1.6491,2.614,-11.56,0.84275,8.1352,7.0224,-1.9955,-3.4542,4.9249,13.189,8.704,7.1031,42.999,-57.648,-11.76,9.1253,5.3237,-33.96,18.124,1.4325,9.277,-9.3749,-13.338,0.54291,21.367,-0.85284,13.492,11.348,1.9787,6.5906,3.8915,-1.7431,22.661,-11.445,-0.56665,7.7161,7.9151,5.2897,6.5442,6.6653,-35.899,-33.449,-41.548,-1.6915,114.03,-3.4481,-30.831,-51.218,127.45,2.7927,-2.1622,28.233,-7.4277,-0.86366,1.7309,37.686,0.96891,11.348,14.065,4.4653,4.1748,3.2566,0.27025,30.438,1.4523,0.77071,3.2342,1.6096,8.0768,8.7696,4.7939,-43.393,-41.599,-45.199,-71.139,259.93,27.101,-42.323,-17.983,71.743,-29.888,0.8754,-9.0026,-10.093,0.10642,-3.1802,18.547,8.228,1.9787,4.4653,4.0127,2.8195,0.83177,-3.8953,6.7757,8.7864,-5.019,-1.9558,-4.5682,3.1899,5.3042,4.2185,-24.46,-21.093,-24.701,30.704,54.174,16.232,-22.794,-28.816,23.276,29.797,-6.9977,-19.368,-6.101,-5.8542,1.6137,-0.74274,0.29253,6.5906,4.1748,2.8195,-0.32225,-3.5109,-4.9328,-11.152,-5.2656,-1.4528,-5.0069,-3.6353,1.5561,-0.8906,1.929,-0.13285,3.0024,1.1646,-0.84635,-59.694,17.047,-0.84713,5.6412,-79.494,12.001,90.262,-26.357,-1.2521,-4.7525,-2.477,-14.32,-2.7022,3.8915,3.2566,0.83177,-3.5109,-4.1985,-7.1354,-21.951,-7.2836,-3.0417,-1.4294,-2.117,-0.50249,-3.2839,-1.8163,18.785,22.197,17.242,36.084,-136.73,-15.843,17.113,15.954,-41.197,-23.126,53.251,-27.647,3.8303,-0.78317,-2.5233,-28.078,-1.6491,-1.7431,0.27025,-3.8953,-4.9328,-7.1354,-8.209,-27.815,-1.3657,-4.8213,-3.9135,-3.6131,-2.1374,-4.7858,-4.6552,35.113,35.353,29.986,6.886,-191.92,-10.681,35.123,36.012,-27.009,-12.29,7.5323,-0.5247,4.9125,-1.1596,-3.251,0.41052,2.614,22.661,30.438,6.7757,-11.152,-21.951,-27.815,-23.371,0.9271,-9.3894,-4.0459,-14.92,2.4006,-3.8717,8.7792,20.816,37.518,32.34,21.993,-42.926,16.651,21.536,26.243,-12.433,-78.138,-66.561,-18.907,-4.2065,18.442,-6.1611,-8.2396,-11.56,-11.445,1.4523,8.7864,-5.2656,-7.2836,-1.3657,0.9271,9.758,1.5986,0.93639,-4.5464,2.2991,-2.7524,-0.20505,-3.0201,0.21068,10.576,-97.283,25.841,-2.9767,1.3886,-10.725,94.834,-26.237,0.078777,-10.032,1.2784,3.7343,10.937,-9.5537,0.84275,-0.56665,0.77071,-5.019,-1.4528,-3.0417,-4.8213,-9.3894,1.5986,-4.0233,-6.7539,-8.4677,0.41055,-3.1693,0.078966,11.455,15.466,21.947,88.291,-120.65,-0.91124,7.8601,1.6623,-43.308,-0.60939,-0.14976,-11.063,-5.64,-6.9,11.586,-0.12019,8.1352,7.7161,3.2342,-1.9558,-5.0069,-1.4294,-3.9135,-4.0459,0.93639,-6.7539,-1.5114,-3.4936,-1.0098,-2.1356,-1.664,-2.9053,0.063391,-7.9269,58.222,-104,15.081,-3.3541,-16.49,26.296,21.388,9.4562,-5.8725,2.4201,-8.5424,3.6621,-5.9289,7.0224,7.9151,1.6096,-4.5682,-3.6353,-2.117,-3.6131,-14.92,-4.5464,-8.4677,-3.4936,-2.8246,-0.21672,-0.053419,1.0206,12.394,17.577,11.397,-16.298,56.061,14.909,10.52,12.026,22.296,-147.96,-13.769,18.322,3.9957,-2.4622,-1.7139,11.015,-1.9955,5.2897,8.0768,3.1899,1.5561,-0.50249,-2.1374,2.4006,2.2991,0.41055,-1.0098,-0.21672,-0.82098,2.1806,1.2718,-2.9426,-1.4524,-4.5466,10.871,2.853,-42.708,-2.2601,5.6369,-18.089,63.262,2.7911,20.068,7.2878,-3.9179,-0.78704,4.2856,-3.4542,6.5442,8.7696,5.3042,-0.8906,-3.2839,-4.7858,-3.8717,-2.7524,-3.1693,-2.1356,-0.053419,2.1806,-0.93455,3.78,8.6846,10.914,9.1952,6.0086,57.792,-11.695,7.8647,19.516,-55.798,-29.045,-23.024,23.063,4.3039,-3.2204,-1.3761,12.84,4.9249,6.6653,4.7939,4.2185,1.929,-1.8163,-4.6552,8.7792,-0.20505,0.078966,-1.664,1.0206,1.2718,3.78,5.8729,-6.2326,-2.6768,-1.2068,12.958,20.572,48.903,-7.1342,-0.41508,-3.7874,-19.479,-19.883,10.943,7.3728,12.852,3.384,-23.946,13.189,-35.899,-43.393,-24.46,-0.13285,18.785,35.113,20.816,-3.0201,11.455,-2.9053,12.394,-2.9426,8.6846,-6.2326,7.7067,-7.9756,10.542,-10.616,56.243,-43.597,6.2669,9.5609,-2.8678,-12.157,-16.236,19.832,5.5135,10.752,-2.5836,-16.132,8.704,-33.449,-41.599,-21.093,3.0024,22.197,35.353,37.518,0.21068,15.466,0.063391,17.577,-1.4524,10.914,-2.6768,-7.9756,-28.32,-7.0371,-47.793,48.334,7.0878,-8.8558,-3.1615,-28.69,21.834,75.963,23.29,9.834,21.585,-7.0962,-34.367,7.1031,-41.548,-45.199,-24.701,1.1646,17.242,29.986,32.34,10.576,21.947,-7.9269,11.397,-4.5466,9.1952,-1.2068,10.542,-7.0371,13.433,-25.925,-58.739,47.114,8.6383,24.486,32.377,-24.351,-22.566,20.329,-0.56377,-28.315,-40.776,14.682,42.999,-1.6915,-71.139,30.704,-0.84635,36.084,6.886,21.993,-97.283,88.291,58.222,-16.298,10.871,6.0086,12.958,-10.616,-47.793,-25.925,40.032,37.255,89.709,-13.781,-7.3152,-17.221,-33.646,25.974,-34.194,2.734,12.082,18.597,-5.7766,-57.648,114.03,259.93,54.174,-59.694,-136.73,-191.92,-42.926,25.841,-120.65,-104,56.061,2.853,57.792,20.572,56.243,48.334,-58.739,37.255,-38.573,-77.893,-10.88,3.0006,-5.9186,7.3292,-8.8605,13.655,1.7178,-27.876,-3.9517,-9.2283,-11.76,-3.4481,27.101,16.232,17.047,-15.843,-10.681,16.651,-2.9767,-0.91124,15.081,14.909,-42.708,-11.695,48.903,-43.597,7.0878,47.114,89.709,-77.893,53.724,-61.138,-10.26,3.49,-0.70854,-0.10557,6.8484,4.7402,8.9831,6.6511,-26.45,9.1253,-30.831,-42.323,-22.794,-0.84713,17.113,35.123,21.536,1.3886,7.8601,-3.3541,10.52,-2.2601,7.8647,-7.1342,6.2669,-8.8558,8.6383,-13.781,-10.88,-61.138,5.9482,7.6473,-35.201,57.798,38.643,18.703,10.839,2.3183,15.032,-32.767,5.3237,-51.218,-17.983,-28.816,5.6412,15.954,36.012,26.243,-10.725,1.6623,-16.49,12.026,5.6369,19.516,-0.41508,9.5609,-3.1615,24.486,-7.3152,3.0006,-10.26,7.6473,-19.929,17.228,-30.256,2.4741,-44.161,-19.314,-20.813,-34.877,19.997,-33.96,127.45,71.743,23.276,-79.494,-41.197,-27.009,-12.433,94.834,-43.308,26.296,22.296,-18.089,-55.798,-3.7874,-2.8678,-28.69,32.377,-17.221,-5.9186,3.49,-35.201,17.228,-24.861,75.991,-6.7628,15.862,16.016,41.489,60.544,38.901,18.124,2.7927,-29.888,29.797,12.001,-23.126,-12.29,-78.138,-26.237,-0.60939,21.388,-147.96,63.262,-29.045,-19.479,-12.157,21.834,-24.351,-33.646,7.3292,-0.70854,57.798,-30.256,75.991,-59.301,-41.771,-55.226,-43.232,-41.37,-22.062,102.82,1.4325,-2.1622,0.8754,-6.9977,90.262,53.251,7.5323,-66.561,0.078777,-0.14976,9.4562,-13.769,2.7911,-23.024,-19.883,-16.236,75.963,-22.566,25.974,-8.8605,-0.10557,38.643,2.4741,-6.7628,-41.771,-10.492,-0.18257,0,0,0,0,0,0,0,0,0,0,0,0,0,0,0,0,0,0,0,0,0,0,0,0,0,0,0,0,0,0,0,0.92859,0,0,0,0,0,0,0,0,0,0,0,0,0,0,0,0,0,0,0,0,0,0,0,0,0,0,0,0,0,0,0,0.83982,0,0.83982,0,0,0,0,0,0,0,0,0,0,0,0,0,0,0,-2.6246,-3.5855,-3.3768,0.33317,5.4639,4.2276,-2.649,-0.70027,6.3477,-5.6077,3.0113,0,0,0,2.9002,0,0,0,0,0,0,0,0,2.9002,0,0,0,0,0,0,0,2.5528,3.9781,3.3772,-5.4354,-4.3611,-0.46137,2.2661,-1.0187,3.2652,-5.6189,4.3563,0,0,0.83982,0,3.1437,-3.3852,-1.257,3.1507,5.3087,-0.16352,0.28776,-1.6377,0,0,0,0,0,0,0,0,3.2777,6.4935,2.4858,-3.6962,-2.323,-7.3418,1.1968,-0.70027,6.3477,-5.6077,3.0113,0,0,0,0,-3.3852,-3.3852,0,0,0,0,0,0,0,0,0,0,0,0,0,0,-1.1587,-3.231,2.1816,0,0,0,-1.1771,0,0,0,0,0,0,0,0,-1.257,0,-1.257,0,0,0,0,0,0,0,0,0,0,0,0,0,-2.1779,-0.027276,4.4683,0,0,0,-3.52,0,0,0,0,0,0,0,0,3.1507,0,0,3.1507,0,0,0,0,0,0,0,0,0,0,0,0,1.03,3.4226,-2.0866,0,0,0,0.78468,0,0,0,0,0,0,0,0,5.3087,0,0,0,5.3087,0,0,0,0,0,0,0,0,0,0,0,1.7981,2.5919,1.9131,-2.9427,0,0.69678,1.2515,0,0,0,0,0,0,0,0,-0.16352,0,0,0,0,-0.16352,0,0,0,0,0,0,0,0,0,0,-7.2853,-6.6401,-8.319,-1.0718,21.62,8.8102,-7.2771,0,0,0,0,0,0,0,0,0.28776,0,0,0,0,0,0.28776,0,0,0,0,0,0,0,0,0,4.6969,5.0332,3.0434,-5.8447,9.7043,-21.076,4.7311,0,0,0,0,0,0,0,0,-1.6377,0,0,0,0,0,0,-1.6377,0,0,0,0,0,0,0,0,8.9992,8.9297,4.6618,5.8298,-39.111,0,9.0527,0,0,0,0,0,0,0,2.9002,0,0,0,0,0,0,0,0,-4.1222,1.9234,0.50256,-2.7784,-1.7731,-0.73504,-4.592,0.43024,-3.1963,-2.0925,-7.4609,1.2862,7.8601,2.5728,-4.0757,-1.0187,3.2652,-5.6189,4.3563,0,0,0,0,0,0,0,0,0,0,0,0,1.9234,1.9234,0,0,0,0,0,0,2.7665,2.1521,-4.924,0,0,0,1.9288,0,0,0,0,0,0,0,0,0,0,0,0,0,0,0,0,0.50256,0,0.50256,0,0,0,0,0,0.13903,0.63814,-0.91652,0,0,0,0.64191,0,0,0,0,0,0,0,0,0,0,0,0,0,0,0,0,-2.7784,0,0,-2.7784,0,0,0,0,0.6502,-1.2552,-3.0235,0,0,0,0.85018,0,0,0,0,0,0,0,0,0,0,0,0,0,0,0,0,-1.7731,0,0,0,-1.7731,0,0,0,-5.7988,-5.8068,-6.0747,20.095,1.0822,0,-5.2702,0,0,0,0,0,0,0,0,0,0,0,0,0,0,0,0,-0.73504,0,0,0,0,-0.73504,0,0,5.6438,5.7716,5.5601,-14.202,-12.781,4.0241,5.2483,0,0,0,0,0,0,0,0,0,0,0,0,0,0,0,0,-4.592,0,0,0,0,0,-4.592,0,-8.8884,-8.2623,-5.6759,8.6089,18.696,0,-9.0698,0,0,0,0,0,0,0,0,0,0,0,0,0,0,0,0,0.43024,0,0,0,0,0,0,0.43024,-0.26129,0.69188,4.2164,-7.7806,5.2248,-0.98994,-0.67105,0,0,0,0,0,0,-2.6246,2.5528,3.2777,-1.1587,-2.1779,1.03,1.7981,-7.2853,4.6969,8.9992,-3.1963,2.7665,0.13903,0.6502,-5.7988,5.6438,-8.8884,-0.26129,0.081457,0,0,0,0,0,0,0,0,0,0,0,0,-3.5855,3.9781,6.4935,-3.231,-0.027276,3.4226,2.5919,-6.6401,5.0332,8.9297,-2.0925,2.1521,0.63814,-1.2552,-5.8068,5.7716,-8.2623,0.69188,0,4.401,0,0,0,0,0,0,0,0,0,0,0,-3.3768,3.3772,2.4858,2.1816,4.4683,-2.0866,1.9131,-8.319,3.0434,4.6618,-7.4609,-4.924,-0.91652,-3.0235,-6.0747,5.5601,-5.6759,4.2164,0,0,-4.975,0,0,0,0,0,0,0,0,0,0,0.33317,-5.4354,-3.6962,0,0,0,-2.9427,-1.0718,-5.8447,5.8298,1.2862,0,0,0,20.095,-14.202,8.6089,-7.7806,0,0,0,-2.41,0,0,0,0,0,0,0,0,0,5.4639,-4.3611,-2.323,0,0,0,0,21.62,9.7043,-39.111,7.8601,0,0,0,1.0822,-12.781,18.696,5.2248,0,0,0,0,5.5371,0,0,0,0,0,0,0,0,4.2276,-0.46137,-7.3418,0,0,0,0.69678,8.8102,-21.076,0,2.5728,0,0,0,0,4.0241,0,-0.98994,0,0,0,0,0,-4.769,0,0,0,0,0,0,0,-2.649,2.2661,1.1968,-1.1771,-3.52,0.78468,1.2515,-7.2771,4.7311,9.0527,-4.0757,1.9288,0.64191,0.85018,-5.2702,5.2483,-9.0698,-0.67105,0,0,0,0,0,0,-2.8789,0,0,0,0,0,0,-0.70027,-1.0187,-0.70027,0,0,0,0,0,0,0,-1.0187,0,0,0,0,0,0,0,0,0,0,0,0,0,0,-1.7189,0,0,0,0,0,6.3477,3.2652,6.3477,0,0,0,0,0,0,0,3.2652,0,0,0,0,0,0,0,0,0,0,0,0,0,0,0,9.6128,0,0,0,0,-5.6077,-5.6189,-5.6077,0,0,0,0,0,0,0,-5.6189,0,0,0,0,0,0,0,0,0,0,0,0,0,0,0,0,-11.227,0,0,0,3.0113,4.3563,3.0113,0,0,0,0,0,0,0,4.3563,0,0,0,0,0,0,0,0,0,0,0,0,0,0,0,0,0,7.3676,0,-0.68931,0.43448,0.70847,0.1412,0.28761,-0.68431,-1.0465,-0.25005,0.32129,0.64409,-0.26719,0.70509,-1.6116,0.90327,-1.2177,2.5613,0.004384,0.32107,0.020519,0.2339,-0.13045,0.94248,6.5584,6.8865,13.807,0.2245,1.8538,6.7138,1.2482,3.467,-0.68931,0,0.108,-0.66692,-0.51946,-2.2342,0.10326,0.87444,0.23682,0.27262,-0.16728,0.21658,0.19326,0.20288,0.8928,0.58423,-0.23564,-0.14607,0.094143,-0.016248,0.086294,0.16927,-0.92166,-16.147,-5.4407,-16.964,0.18794,0.34865,-3.5956,6.06,-1.8959,0.43448,0.108,0,-0.10755,1.1466,1.8407,-6.8114,-0.095422,-0.41403,-1.1898,-0.74502,-0.45956,0.51785,13.899,3.578,-1.9052,-0.39314,0.031907,1.0471,-0.41212,-0.082181,0.49387,1.2365,4.5873,4.243,13.316,0.32056,-0.13147,-5.8411,-3.202,-3.7454,0.70847,-0.66692,-0.10755,0,0.14368,-0.012193,5.509,0.25409,-1.7667,-1.3544,-2.0936,-0.68973,0.81136,-1.8,1.2251,-1.756,-2.7476,-2.3802,1.4638,0.04384,-0.098277,-1.1407,-3.3127,15.131,-60.102,-7.0807,0.44872,2.2157,-1.7683,14.875,50.752,0.1412,-0.51946,1.1466,0.14368,0,4.3064,2.5974,-0.36018,-1.1263,-0.33014,-0.52891,-0.31121,0.25969,0.9312,-1.0451,-2.0299,-0.37502,0.20117,0.2767,-0.39298,0.096669,0.11072,-0.053062,-0.61172,6.2724,-43.879,-0.19108,-0.01121,17.317,5.4997,2.8402,0.28761,-2.2342,1.8407,-0.012193,4.3064,0,-4.5238,-1.7082,7.0714,-0.0015876,-0.91261,-0.65433,1.2121,-5.9721,0.49718,3.7982,-1.4948,-0.7257,-1.1441,-1.1375,0.47047,-1.5607,-3.306,0,0,0,-1.9832,-44.98,0,0,0,-0.68431,0.10326,-6.8114,5.509,2.5974,-4.5238,0,-0.22722,1.2884,5.2844,2.4106,-0.83044,0.9154,-2.9398,-2.3127,0.62792,-0.51302,-2.0007,0.62653,-0.33766,-1.1553,-0.6116,-0.98052,0,0,0,-1.1519,-36.991,0,0,0,-1.0465,0.87444,-0.095422,0.25409,-0.36018,-1.7082,-0.22722,0,-0.041003,3.2975,3.2524,1.8595,-0.10295,0.50632,-0.97368,1.4248,-0.16819,-1.4181,-0.41219,0.13291,-0.86533,-0.37005,7.1839,0,0,0,-1.2867,15.734,0,0,0,-0.25005,0.23682,-0.41403,-1.7667,-1.1263,7.0714,1.2884,-0.041003,0,0.84828,2.8527,-1.4397,-0.37748,2.3291,-2.1561,-0.54781,-1.8078,-0.84611,1.443,-1.0334,-0.063693,0.3655,1.8293,-160.17,0.010887,0,-0.57767,5.7433,0,0,0,0.32129,0.27262,-1.1898,-1.3544,-0.33014,-0.0015876,5.2844,3.2975,0.84828,0,1.1088,1.7775,-0.53551,-2.7131,1.1353,0.58304,-0.51441,-0.11749,-0.39118,0.84565,-0.67435,-0.17787,0.26019,13.481,-0.90226,-10.931,0.015673,-1.3779,-6.7038,44.472,9.9856,0.64409,-0.16728,-0.74502,-2.0936,-0.52891,-0.91261,2.4106,3.2524,2.8527,1.1088,0,-0.086116,-0.39526,-1.4365,2.2135,1.8404,0.33706,-0.50853,-0.80303,0.78263,-0.17635,-1.2861,-1.3606,120.52,47.399,-50.398,-0.27073,0.23303,-4.4164,61.654,-34.93,-0.26719,0.21658,-0.45956,-0.68973,-0.31121,-0.65433,-0.83044,1.8595,-1.4397,1.7775,-0.086116,0,-0.04654,-2.7799,-0.57345,0.99787,1.4187,0.1574,-0.16025,0.17335,-0.025626,-0.13978,0.13788,11.912,-13.252,0,0.27264,5.1505,8.1657,-27.799,0,0.70509,0.19326,0.51785,0.81136,0.25969,1.2121,0.9154,-0.10295,-0.37748,-0.53551,-0.39526,-0.04654,0,-1.5463,-1.3246,-1.2971,0.53189,0.11609,-0.68716,-0.46645,-0.011769,0.16982,0.21033,-8.9255,73.942,-6.1912,0.14767,-1.461,-7.8485,-27.941,-48.993,-1.6116,0.20288,13.899,-1.8,0.9312,-5.9721,-2.9398,0.50632,2.3291,-2.7131,-1.4365,-2.7799,-1.5463,0,2.4154,7.2985,-5.58,0.036737,-0.1536,0.56182,-0.11298,-3.1407,-3.4353,0,0,0,0.044667,-15.422,0,0,0,0.90327,0.8928,3.578,1.2251,-1.0451,0.49718,-2.3127,-0.97368,-2.1561,1.1353,2.2135,-0.57345,-1.3246,2.4154,0,-0.31722,-8.1393,-0.64561,-2.6361,1.3791,0.29141,-1.7738,-0.44528,0,0,0,0.12985,-19.074,0,0,0,-1.2177,0.58423,-1.9052,-1.756,-2.0299,3.7982,0.62792,1.4248,-0.54781,0.58304,1.8404,0.99787,-1.2971,7.2985,-0.31722,0,0.31671,1.4304,1.415,1.4657,1.7497,-1.2551,-2.6334,0,0,0,0.61771,-16.043,0,0,0,2.5613,-0.23564,-0.39314,-2.7476,-0.37502,-1.4948,-0.51302,-0.16819,-1.8078,-0.51441,0.33706,1.4187,0.53189,-5.58,-8.1393,0.31671,0,0.31557,1.2844,-2.3159,-0.10959,-0.79388,2.1955,-125.21,0.075623,0,-0.12409,-4.96,-72.863,0,0,0.004384,-0.14607,0.031907,-2.3802,0.20117,-0.7257,-2.0007,-1.4181,-0.84611,-0.11749,-0.50853,0.1574,0.11609,0.036737,-0.64561,1.4304,0.31557,0,2.4251,-1.9919,0.034176,0.26408,0.50802,31.589,-61.18,-30.773,0.50188,1.8453,-17.479,4.3573,32.403,0.32107,0.094143,1.0471,1.4638,0.2767,-1.1441,0.62653,-0.41219,1.443,-0.39118,-0.80303,-0.16025,-0.68716,-0.1536,-2.6361,1.415,1.2844,2.4251,0,2.2006,-0.1508,0.29216,-0.67842,-35.73,8.7214,1.1685,0.40205,-2.8112,-6.1913,81.028,9.483,0.020519,-0.016248,-0.41212,0.04384,-0.39298,-1.1375,-0.33766,0.13291,-1.0334,0.84565,0.78263,0.17335,-0.46645,0.56182,1.3791,1.4657,-2.3159,-1.9919,2.2006,0,-0.15319,-0.050332,1.046,23.865,-81.317,31.473,0.046064,-3.2786,12.791,10.816,0,0.2339,0.086294,-0.082181,-0.098277,0.096669,0.47047,-1.1553,-0.86533,-0.063693,-0.67435,-0.17635,-0.025626,-0.011769,-0.11298,0.29141,1.7497,-0.10959,0.034176,-0.1508,-0.15319,0,-0.068742,0.11047,-0.48639,0,0,-0.16578,2.3871,0.60791,-12.316,-10.477,-0.13045,0.16927,0.49387,-1.1407,0.11072,-1.5607,-0.6116,-0.37005,0.3655,-0.17787,-1.2861,-0.13978,0.16982,-3.1407,-1.7738,-1.2551,-0.79388,0.26408,0.29216,-0.050332,-0.068742,0,0.12778,18.998,0,0,0.30892,1.4479,-10.981,-25.438,28.933,0.94248,-0.92166,1.2365,-3.3127,-0.053062,-3.306,-0.98052,7.1839,1.8293,0.26019,-1.3606,0.13788,0.21033,-3.4353,-0.44528,-2.6334,2.1955,0.50802,-0.67842,1.046,0.11047,0.12778,0,-2.875,-34.815,0,1.6617,-0.69128,-2.4246,16.272,11.64,6.5584,-16.147,4.5873,15.131,-0.61172,0,0,0,-160.17,13.481,120.52,11.912,-8.9255,0,0,0,-125.21,31.589,-35.73,23.865,-0.48639,18.998,-2.875,0,1.8533,-202.98,-39.4,0,0,0,0,6.8865,-5.4407,4.243,-60.102,6.2724,0,0,0,0.010887,-0.90226,47.399,-13.252,73.942,0,0,0,0.075623,-61.18,8.7214,-81.317,0,0,-34.815,1.8533,0,13.039,0,0,0,0,0,13.807,-16.964,13.316,-7.0807,-43.879,0,0,0,0,-10.931,-50.398,0,-6.1912,0,0,0,0,-30.773,1.1685,31.473,0,0,0,-202.98,13.039,0,0,0,0,0,0,0.2245,0.18794,0.32056,0.44872,-0.19108,-1.9832,-1.1519,-1.2867,-0.57767,0.015673,-0.27073,0.27264,0.14767,0.044667,0.12985,0.61771,-0.12409,0.50188,0.40205,0.046064,-0.16578,0.30892,1.6617,-39.4,0,0,0,1.9437,-4.0517,5.4177,2.0863,1.8538,0.34865,-0.13147,2.2157,-0.01121,-44.98,-36.991,15.734,5.7433,-1.3779,0.23303,5.1505,-1.461,-15.422,-19.074,-16.043,-4.96,1.8453,-2.8112,-3.2786,2.3871,1.4479,-0.69128,0,0,0,1.9437,0,3.7172,1.905,-2.9926,6.7138,-3.5956,-5.8411,-1.7683,17.317,0,0,0,0,-6.7038,-4.4164,8.1657,-7.8485,0,0,0,-72.863,-17.479,-6.1913,12.791,0.60791,-10.981,-2.4246,0,0,0,-4.0517,3.7172,0,-1.2509,2.3735,1.2482,6.06,-3.202,14.875,5.4997,0,0,0,0,44.472,61.654,-27.799,-27.941,0,0,0,0,4.3573,81.028,10.816,-12.316,-25.438,16.272,0,0,0,5.4177,1.905,-1.2509,0,-10.108,3.467,-1.8959,-3.7454,50.752,2.8402,0,0,0,0,9.9856,-34.93,0,-48.993,0,0,0,0,32.403,9.483,0,-10.477,28.933,11.64,0,0,0,2.0863,-2.9926,2.3735,-10.108,0,0,0.38899,-0.081466,-0.45481,0.50263,0.12781,1.5014,1.0389,0.02936,-0.18076,-0.68365,0.48932,-0.40651,1.3911,0.86834,0.58906,-1.4324,-0.12202,0.14852,-0.029143,-0.36371,0.018057,-0.75023,-6.1525,10.918,29.488,0.072381,0.14771,5.4662,2.8363,4.8847,0.38899,0,-0.33261,-0.11423,1.9905,-1.3101,-1.3545,-0.059563,-0.28391,0.24859,0.38246,-0.029153,-1.9282,-1.1038,-0.27263,-0.87836,0.095733,0.1072,0.089363,-0.078487,-0.02459,-0.071524,0.17748,9.9927,-11.132,-34.619,-0.50534,-0.062353,-4.3155,-3.4943,-2.9586,-0.081466,-0.33261,0,-2.1544,1.299,-14.361,12.885,3.6249,0.65286,3.2075,1.3674,0.26192,0.038044,-12.986,-13.452,-1.7888,2.3892,0.20287,-0.24593,1.275,-1.9908,-5.2698,5.5376,21.364,-56.116,50.5,-0.73591,-2.6192,26.543,17.65,43.444,-0.45481,-0.11423,-2.1544,0,0.66888,15.372,-4.0467,2.9413,4.2144,0.31271,4.0537,1.3866,0.088734,13.915,-1.8922,-2.0366,0.25234,3.302,-1.5207,-0.84809,1.9906,-0.3813,-2.4855,7.0047,85.79,70.969,-1.7787,-2.9173,-18.881,-14.592,-141.43,0.50263,1.9905,1.299,0.66888,0,1.2011,-2.5953,-1.4583,0.63522,-0.056053,0.43109,-0.061105,-1.0165,-1.2686,-0.4922,0.8566,-0.92333,-0.98047,-0.32937,1.1058,-0.51851,0.89577,1.5097,-11.335,63.462,21.203,-0.17493,-2.2006,-35.755,-58.036,-28.258,0.12781,-1.3101,-14.361,15.372,1.2011,0,11.038,5.6073,-8.6708,0.46878,-0.16627,2.2365,-0.52607,1.6207,-6.7498,-5.6327,0.32149,1.7622,5.3779,1.2534,-4.3837,-2.2031,4.6845,-149.28,18.315,-0.0017632,3.9401,-56.549,56.641,2.4518,0.004783,1.5014,-1.3545,12.885,-4.0467,-2.5953,11.038,0,-2.6128,-0.29509,-5.134,-0.50249,0.6111,0.027126,10.538,-1.3666,0.39079,2.9482,1.1111,-2.902,-0.41963,0.3698,0.80722,2.8989,-149.71,20.579,-0.00079958,6.3888,-0.45556,-81.448,1.3014,0,1.0389,-0.059563,3.6249,2.9413,-1.4583,5.6073,-2.6128,0,-1.0907,-2.7072,-1.5349,-2.0163,1.2765,2.6969,-1.8201,-2.6235,0.65881,0.541,-0.62952,-0.22445,0.84729,-0.61256,4.0095,-40.166,-27.666,0.30093,2.8751,-15.438,-116.41,-26.649,7.6359e-05,0.02936,-0.28391,0.65286,4.2144,0.63522,-8.6708,-0.29509,-1.0907,0,-0.0090064,-1.7619,1.182,1.9232,-9.1119,0.87451,-2.7664,1.489,1.1224,-1.7559,0.23183,-0.56691,-0.89914,-2.3934,-215.41,-80.759,0.034549,2.5831,0.85469,-148.91,-17.857,-0.050809,-0.18076,0.24859,3.2075,0.31271,-0.056053,0.46878,-5.134,-2.7072,-0.0090064,0,-1.581,-0.72852,1.8264,1.6227,-3.1101,1.842,1.2537,0.22327,0.18573,-0.83985,0.1551,0.27707,0.41585,24.688,-1.6649,-2.0192,-0.61716,-1.1079,0.7854,61.96,42.454,-0.68365,0.38246,1.3674,4.0537,0.43109,-0.16627,-0.50249,-1.5349,-1.7619,-1.581,0,0.66375,0.1093,1.2605,-3.4016,-1.4992,0.4722,1.5816,0.44021,-0.72809,0.12545,0.75019,1.249,-9.3654,-9.226,-36.384,0.41306,1.8193,41.382,56.64,10.145,0.48932,-0.029153,0.26192,1.3866,-0.061105,2.2365,0.6111,-2.0163,1.182,-0.72852,0.66375,0,-0.61832,2.4708,0.15971,-1.5074,-0.81361,0.14826,-0.16884,-0.17236,0.32835,-0.73628,-0.15813,5.8446,160.77,9.5629,-0.33242,0.51098,26.903,141.31,0.040858,-0.40651,-1.9282,0.038044,0.088734,-1.0165,-0.52607,0.027126,1.2765,1.9232,1.8264,0.1093,-0.61832,0,-3.9828,0.20368,1.6972,-0.90196,-0.46058,0.14646,0.11578,-0.034407,0.51896,2.1292,-11.458,-60.236,-41.452,-0.23774,-0.94809,20.816,36.79,132.23,1.3911,-1.1038,-12.986,13.915,-1.2686,1.6207,10.538,2.6969,-9.1119,1.6227,1.2605,2.4708,-3.9828,0,-3.7573,-5.6337,1.3323,-0.2817,1.817,-1.4914,4.158,9.0728,6.737,148.02,-37.067,-0.0078833,-4.7633,-13.371,-50.235,-3.3993,0,0.86834,-0.27263,-13.452,-1.8922,-0.4922,-6.7498,-1.3666,-1.8201,0.87451,-3.1101,-3.4016,0.15971,0.20368,-3.7573,0,5.1088,2.7114,-0.66132,4.7666,-1.0861,0.86594,3.7852,-7.8893,-129.98,-7.7225,0.0045731,0.81471,19.852,24.362,0.60662,0,0.58906,-0.87836,-1.7888,-2.0366,0.8566,-5.6327,0.39079,-2.6235,-2.7664,1.842,-1.4992,-1.5074,1.6972,-5.6337,5.1088,0,3.5209,-0.88394,0.22781,-1.8634,-0.9518,1.853,0.47708,-19.349,-29.603,0.12527,-0.074859,-19.651,-25.799,4.5637,0.092239,-1.4324,0.095733,2.3892,0.25234,-0.92333,0.32149,2.9482,0.65881,1.489,1.2537,0.4722,-0.81361,-0.90196,1.3323,2.7114,3.5209,0,-1.1675,0.44726,1.7165,0.70411,1.3597,3.3791,148.75,-26.93,-0.031526,1.5661,6.0309,30.553,-28.867,-0.14451,-0.12202,0.1072,0.20287,3.302,-0.98047,1.7622,1.1111,0.541,1.1224,0.22327,1.5816,0.14826,-0.46058,-0.2817,-0.66132,-0.88394,-1.1675,0,-0.6818,0.80262,0.69637,-0.68407,0.18835,-50.433,23.496,-5.5611,0.64601,-2.8749,6.3548,145.23,-11.387,0.14852,0.089363,-0.24593,-1.5207,-0.32937,5.3779,-2.902,-0.62952,-1.7559,0.18573,0.44021,-0.16884,0.14646,1.817,4.7666,0.22781,0.44726,-0.6818,0,-1.2259,0.33821,-0.68056,0.40108,6.6997,-3.3088,-0.36201,-0.216,3.1989,116.3,-16.624,-1.693,-0.029143,-0.078487,1.275,-0.84809,1.1058,1.2534,-0.41963,-0.22445,0.23183,-0.83985,-0.72809,-0.17236,0.11578,-1.4914,-1.0861,-1.8634,1.7165,0.80262,-1.2259,0,-0.12765,-0.39604,0.14359,-6.4649,80.592,-15.687,-0.13623,7.1845,15.483,2.2981,-0.70865,-0.36371,-0.02459,-1.9908,1.9906,-0.51851,-4.3837,0.3698,0.84729,-0.56691,0.1551,0.12545,0.32835,-0.034407,4.158,0.86594,-0.9518,0.70411,0.69637,0.33821,-0.12765,0,0.088315,-2.4023,-6.1821,-93.196,-8.4509,-0.038262,-3.0893,4.1091,8.5918,45.601,0.018057,-0.071524,-5.2698,-0.3813,0.89577,-2.2031,0.80722,-0.61256,-0.89914,0.27707,0.75019,-0.73628,0.51896,9.0728,3.7852,1.853,1.3597,-0.68407,-0.68056,-0.39604,0.088315,0,-0.16097,-22.151,-158.8,44.944,-1.2099,-3.2183,14.255,-97.815,-55.24,-0.75023,0.17748,5.5376,-2.4855,1.5097,4.6845,2.8989,4.0095,-2.3934,0.41585,1.249,-0.15813,2.1292,6.737,-7.8893,0.47708,3.3791,0.18835,0.40108,0.14359,-2.4023,-0.16097,0,20.367,-21.581,-11.444,-3.4373,-8.53,-58.368,26.965,7.652,-6.1525,9.9927,21.364,7.0047,-11.335,-149.28,-149.71,-40.166,-215.41,24.688,-9.3654,5.8446,-11.458,148.02,-129.98,-19.349,148.75,-50.433,6.6997,-6.4649,-6.1821,-22.151,20.367,0,8.5959,71.94,3.4839,-29.427,107.05,-27.937,10.229,10.918,-11.132,-56.116,85.79,63.462,18.315,20.579,-27.666,-80.759,-1.6649,-9.226,160.77,-60.236,-37.067,-7.7225,-29.603,-26.93,23.496,-3.3088,80.592,-93.196,-158.8,-21.581,8.5959,0,29.247,-100.37,54.403,-18.28,0.37121,-1.3333,29.488,-34.619,50.5,70.969,21.203,-0.0017632,-0.00079958,0.30093,0.034549,-2.0192,-36.384,9.5629,-41.452,-0.0078833,0.0045731,0.12527,-0.031526,-5.5611,-0.36201,-15.687,-8.4509,44.944,-11.444,71.94,29.247,0,-12.025,-2.9104,0.0030788,0,0,0.072381,-0.50534,-0.73591,-1.7787,-0.17493,3.9401,6.3888,2.8751,2.5831,-0.61716,0.41306,-0.33242,-0.23774,-4.7633,0.81471,-0.074859,1.5661,0.64601,-0.216,-0.13623,-0.038262,-1.2099,-3.4373,3.4839,-100.37,-12.025,0,0.092419,26.257,-36.478,-35.249,0.14771,-0.062353,-2.6192,-2.9173,-2.2006,-56.549,-0.45556,-15.438,0.85469,-1.1079,1.8193,0.51098,-0.94809,-13.371,19.852,-19.651,6.0309,-2.8749,3.1989,7.1845,-3.0893,-3.2183,-8.53,-29.427,54.403,-2.9104,0.092419,0,-3.8394,2.8326,6.1937,5.4662,-4.3155,26.543,-18.881,-35.755,56.641,-81.448,-116.41,-148.91,0.7854,41.382,26.903,20.816,-50.235,24.362,-25.799,30.553,6.3548,116.3,15.483,4.1091,14.255,-58.368,107.05,-18.28,0.0030788,26.257,-3.8394,0,-11.464,-75.868,2.8363,-3.4943,17.65,-14.592,-58.036,2.4518,1.3014,-26.649,-17.857,61.96,56.64,141.31,36.79,-3.3993,0.60662,4.5637,-28.867,145.23,-16.624,2.2981,8.5918,-97.815,26.965,-27.937,0.37121,0,-36.478,2.8326,-11.464,0,2.9138,4.8847,-2.9586,43.444,-141.43,-28.258,0.004783,0,7.6359e-05,-0.050809,42.454,10.145,0.040858,132.23,0,0,0.092239,-0.14451,-11.387,-1.693,-0.70865,45.601,-55.24,7.652,10.229,-1.3333,0,-35.249,6.1937,-75.868,2.9138,0,0,0.31263,-0.55322,0.39235,0.37098,-2.3562,0.1322,0.64554,0.20126,-0.12145,-0.25969,0.21821,-0.49543,0.20266,-1.1799,0.42233,-1.5478,-0.17082,-0.50951,-0.28408,-0.079962,0.1615,-0.92396,4.4978,-7.2349,-16.178,-0.23067,-1.2189,-3.1447,-18.346,0,0.31263,0,-0.61406,0.64818,0.13079,-0.37891,0.22191,-0.41951,0.36305,-0.19126,0.0094326,-0.14485,-0.10904,0.85425,-1.0392,-0.5588,-0.62981,-0.084107,-0.070132,0.011328,-0.044068,-0.052414,0.19466,2.5301,4.1079,7.8055,-0.0011316,0.11096,2.5393,-12.783,-0.64782,-0.55322,-0.61406,0,0.16838,0,0,0,0,0,0,0,0,0.7184,-4.7953,0.049838,0.81914,-0.095301,0.11695,-0.54392,-0.37864,-0.0014634,-1.2222,0,0,0,0,0.13532,0.62847,2.5459,3.4873,-2.8389,0.39235,0.64818,0.16838,0,-0.71491,0.43691,-1.931,-0.90024,0.64173,0.69736,0.6662,0.463,0,0,0,0,0,0,0,0,0.11219,0.86027,0,0,0,0,-0.44341,-0.66358,-2.9342,2.0861,-6.3252,0.37098,0.13079,0,-0.71491,0,0,0,0,0,0,0,0,0.041649,-1.1659,0.67636,1.0721,0.9293,0.23856,-0.10271,0.053842,0.0078339,-0.0057573,0.3641,29.901,8.7734,-4.8473,-0.17445,0.054055,-1.158,-1.6433,3.1267,-2.3562,-0.37891,0,0.43691,0,0,0,0,0,0,0,0,0.44746,3.9961,0.41809,-1.2576,0.61811,-0.27725,-0.16968,0.64451,-0.15664,0.67882,1.5426,0,0,0,1.7598,22.47,0,0,0,0.1322,0.22191,0,-1.931,0,0,0,0,0,0,0,0,-0.76858,1.5411,0.74655,-0.55909,-0.265,0.97551,0.037209,0.10765,0.55588,-0.18996,5.2461,0,0,0,0.16261,12.885,0,0,0,0.64554,-0.41951,0,-0.90024,0,0,0,0,0,0,0,0,0.1832,-0.72109,0.64888,-0.5278,-0.15215,0.65509,0.2824,-0.13979,0.19983,-0.11901,-3.0161,0,0,0,0.57768,-6.0534,0,0,0,0.20126,0.36305,0,0.64173,0,0,0,0,0,0,0,0,-0.31757,1.0085,1.6136,1.0343,0.50856,0.018421,-0.76754,0.47155,0.10225,0.0067002,-2.0226,-1.4713,0,0,0.044568,-0.90401,0,0,0,-0.12145,-0.19126,0,0.69736,0,0,0,0,0,0,0,0,0.3177,1.4781,-0.30639,-0.55659,-0.081062,-0.057254,0.10881,-0.46415,0.16151,-0.02075,-0.17883,-30.725,-23.557,13.816,0.13116,-0.14807,-0.52863,-2.4658,-2.9624,-0.25969,0.0094326,0,0.6662,0,0,0,0,0,0,0,0,0.26284,0.49163,-0.4731,-0.72185,-0.33291,-0.0963,0.23828,-0.32695,0.11164,0.11897,0.25493,-58.312,13.323,-18.663,0.20334,0.058621,8.0127,-13.108,8.928,0.21821,-0.14485,0,0.463,0,0,0,0,0,0,0,0,0.11727,0.82702,0.38608,-0.4125,-0.83443,-0.14439,0.091448,-0.073585,0.00067072,0.13413,-0.031408,-32.198,17.475,0,0.087884,-1.6952,-7.5939,10.443,0,-0.49543,-0.10904,0.7184,0,0.041649,0.44746,-0.76858,0.1832,-0.31757,0.3177,0.26284,0.11727,0,0,0,0,0,0,0,0,0.01683,-0.042594,-0.30186,-5.8994,-12.623,-1.495,0.053416,0.022945,1.7931,-1.1636,6.7271,0.20266,0.85425,-4.7953,0,-1.1659,3.9961,1.5411,-0.72109,1.0085,1.4781,0.49163,0.82702,0,0,0,0,0,0,0,0,-0.20273,0.9668,-19.083,0,0,0,0.90731,8.8814,0,0,0,-1.1799,-1.0392,0.049838,0,0.67636,0.41809,0.74655,0.64888,1.6136,-0.30639,-0.4731,0.38608,0,0,0,0,0,0,0,0,0.091793,-0.87354,-1.5823,0,0,0,-0.63247,10.148,0,0,0,0.42233,-0.5588,0.81914,0,1.0721,-1.2576,-0.55909,-0.5278,1.0343,-0.55659,-0.72185,-0.4125,0,0,0,0,0,0,0,0,-0.61281,0.73174,-0.75626,0,0,0,-0.28872,6.288,0,0,0,-1.5478,-0.62981,-0.095301,0,0.9293,0.61811,-0.265,-0.15215,0.50856,-0.081062,-0.33291,-0.83443,0,0,0,0,0,0,0,0,0.052677,0.034703,-2.1257,10.048,0.18037,0,0.15545,1.8993,0,0,0,-0.17082,-0.084107,0.11695,0,0.23856,-0.27725,0.97551,0.65509,0.018421,-0.057254,-0.0963,-0.14439,0,0,0,0,0,0,0,0,-0.088622,-0.063781,-0.46994,4.3785,-14.205,18.504,-0.46548,0.13046,-4.1175,0.07456,-5.9137,-0.50951,-0.070132,-0.54392,0,-0.10271,-0.16968,0.037209,0.2824,-0.76754,0.10881,0.23828,0.091448,0,0,0,0,0,0,0,0,0.025545,-0.0022174,0.06192,20.488,0,0,-0.22657,1.1103,-11.4,21.469,18.966,-0.28408,0.011328,-0.37864,0,0.053842,0.64451,0.10765,-0.13979,0.47155,-0.46415,-0.32695,-0.073585,0,0,0,0,0,0,0,0,0.10646,0.0058543,-0.10787,2.563,1.4016,-19.999,-0.075876,0.13201,-9.2807,-24.793,0,-0.079962,-0.044068,-0.0014634,0.11219,0.0078339,-0.15664,0.55588,0.19983,0.10225,0.16151,0.11164,0.00067072,0.01683,-0.20273,0.091793,-0.61281,0.052677,-0.088622,0.025545,0.10646,0,0.038934,0,0,0,0,0.089519,-0.42356,-0.27141,10.966,-8.3914,0.1615,-0.052414,-1.2222,0.86027,-0.0057573,0.67882,-0.18996,-0.11901,0.0067002,-0.02075,0.11897,0.13413,-0.042594,0.9668,-0.87354,0.73174,0.034703,-0.063781,-0.0022174,0.0058543,0.038934,0,0.47221,0,0,0,2.6478,0,0,0,-4.7303,-0.92396,0.19466,0,0,0.3641,1.5426,5.2461,-3.0161,-2.0226,-0.17883,0.25493,-0.031408,-0.30186,-19.083,-1.5823,-0.75626,-2.1257,-0.46994,0.06192,-0.10787,0,0.47221,0,1.6859,0,0,0,0,0,0,0,4.4978,2.5301,0,0,29.901,0,0,0,-1.4713,-30.725,-58.312,-32.198,-5.8994,0,0,0,10.048,4.3785,20.488,2.563,0,0,1.6859,0,14.018,0,0,0,0,0,0,-7.2349,4.1079,0,0,8.7734,0,0,0,0,-23.557,13.323,17.475,-12.623,0,0,0,0.18037,-14.205,0,1.4016,0,0,0,14.018,0,-6.3423,0,0,0,0,0,-16.178,7.8055,0,0,-4.8473,0,0,0,0,13.816,-18.663,0,-1.495,0,0,0,0,18.504,0,-19.999,0,0,0,0,-6.3423,0,0,0,0,0,0,-0.23067,-0.0011316,0.13532,-0.44341,-0.17445,1.7598,0.16261,0.57768,0.044568,0.13116,0.20334,0.087884,0.053416,0.90731,-0.63247,-0.28872,0.15545,-0.46548,-0.22657,-0.075876,0.089519,2.6478,0,0,0,0,0,-0.09643,-1.5959,10.768,-0.052177,-1.2189,0.11096,0.62847,-0.66358,0.054055,22.47,12.885,-6.0534,-0.90401,-0.14807,0.058621,-1.6952,0.022945,8.8814,10.148,6.288,1.8993,0.13046,1.1103,0.13201,-0.42356,0,0,0,0,0,-0.09643,0,-1.9702,10.897,4.6741,-3.1447,2.5393,2.5459,-2.9342,-1.158,0,0,0,0,-0.52863,8.0127,-7.5939,1.7931,0,0,0,0,-4.1175,-11.4,-9.2807,-0.27141,0,0,0,0,0,-1.5959,-1.9702,0,13.442,-2.0367,-18.346,-12.783,3.4873,2.0861,-1.6433,0,0,0,0,-2.4658,-13.108,10.443,-1.1636,0,0,0,0,0.07456,21.469,-24.793,10.966,0,0,0,0,0,10.768,10.897,13.442,0,9.8886,0,-0.64782,-2.8389,-6.3252,3.1267,0,0,0,0,-2.9624,8.928,0,6.7271,0,0,0,0,-5.9137,18.966,0,-8.3914,-4.7303,0,0,0,0,-0.052177,4.6741,-2.0367,9.8886,0};
